digraph Tree {
node [shape=box, style="filled, rounded", color="black", fontname=helvetica] ;
edge [fontname=helvetica] ;
0 [label="Credit_History <= 0.5\ngini = 0.43\nsamples = 553\nvalue = [173, 380]\nclass = Yes", fillcolor="#399de58b"] ;
1 [label="LoanAmount <= 1.5\ngini = 0.433\nsamples = 126\nvalue = [86, 40]\nclass = No", fillcolor="#e5813988"] ;
0 -> 1 [labeldistance=2.5, labelangle=45, headlabel="True"] ;
2 [label="Total_Income <= 1.5\ngini = 0.487\nsamples = 31\nvalue = [18, 13]\nclass = No", fillcolor="#e5813947"] ;
1 -> 2 ;
3 [label="Dependents <= 1.5\ngini = 0.459\nsamples = 28\nvalue = [18, 10]\nclass = No", fillcolor="#e5813971"] ;
2 -> 3 ;
4 [label="Loan_Amount_Term <= 1.5\ngini = 0.483\nsamples = 22\nvalue = [13, 9]\nclass = No", fillcolor="#e581394e"] ;
3 -> 4 ;
5 [label="gini = 0.0\nsamples = 2\nvalue = [0, 2]\nclass = Yes", fillcolor="#399de5ff"] ;
4 -> 5 ;
6 [label="gini = 0.455\nsamples = 20\nvalue = [13, 7]\nclass = No", fillcolor="#e5813976"] ;
4 -> 6 ;
7 [label="Loan_Amount_Term <= 2.5\ngini = 0.278\nsamples = 6\nvalue = [5, 1]\nclass = No", fillcolor="#e58139cc"] ;
3 -> 7 ;
8 [label="gini = 0.444\nsamples = 3\nvalue = [2, 1]\nclass = No", fillcolor="#e581397f"] ;
7 -> 8 ;
9 [label="gini = 0.0\nsamples = 3\nvalue = [3, 0]\nclass = No", fillcolor="#e58139ff"] ;
7 -> 9 ;
10 [label="gini = 0.0\nsamples = 3\nvalue = [0, 3]\nclass = Yes", fillcolor="#399de5ff"] ;
2 -> 10 ;
11 [label="LoanAmount <= 6.5\ngini = 0.407\nsamples = 95\nvalue = [68, 27]\nclass = No", fillcolor="#e581399a"] ;
1 -> 11 ;
12 [label="Gender <= 0.5\ngini = 0.396\nsamples = 92\nvalue = [67, 25]\nclass = No", fillcolor="#e58139a0"] ;
11 -> 12 ;
13 [label="LoanAmount <= 2.5\ngini = 0.357\nsamples = 73\nvalue = [56, 17]\nclass = No", fillcolor="#e58139b2"] ;
12 -> 13 ;
14 [label="gini = 0.188\nsamples = 19\nvalue = [17, 2]\nclass = No", fillcolor="#e58139e1"] ;
13 -> 14 ;
15 [label="gini = 0.401\nsamples = 54\nvalue = [39, 15]\nclass = No", fillcolor="#e581399d"] ;
13 -> 15 ;
16 [label="LoanAmount <= 3.5\ngini = 0.488\nsamples = 19\nvalue = [11, 8]\nclass = No", fillcolor="#e5813946"] ;
12 -> 16 ;
17 [label="gini = 0.5\nsamples = 16\nvalue = [8, 8]\nclass = No", fillcolor="#e5813900"] ;
16 -> 17 ;
18 [label="gini = 0.0\nsamples = 3\nvalue = [3, 0]\nclass = No", fillcolor="#e58139ff"] ;
16 -> 18 ;
19 [label="Total_Income <= 4.5\ngini = 0.444\nsamples = 3\nvalue = [1, 2]\nclass = Yes", fillcolor="#399de57f"] ;
11 -> 19 ;
20 [label="gini = 0.0\nsamples = 1\nvalue = [1, 0]\nclass = No", fillcolor="#e58139ff"] ;
19 -> 20 ;
21 [label="gini = 0.0\nsamples = 2\nvalue = [0, 2]\nclass = Yes", fillcolor="#399de5ff"] ;
19 -> 21 ;
22 [label="Total_Income <= 4.5\ngini = 0.324\nsamples = 427\nvalue = [87, 340]\nclass = Yes", fillcolor="#399de5be"] ;
0 -> 22 [labeldistance=2.5, labelangle=-45, headlabel="False"] ;
23 [label="Loan_Amount_Term <= 3.5\ngini = 0.314\nsamples = 416\nvalue = [81, 335]\nclass = Yes", fillcolor="#399de5c1"] ;
22 -> 23 ;
24 [label="Property_Area <= 1.5\ngini = 0.304\nsamples = 406\nvalue = [76, 330]\nclass = Yes", fillcolor="#399de5c4"] ;
23 -> 24 ;
25 [label="LoanAmount <= 1.5\ngini = 0.377\nsamples = 123\nvalue = [31, 92]\nclass = Yes", fillcolor="#399de5a9"] ;
24 -> 25 ;
26 [label="gini = 0.5\nsamples = 18\nvalue = [9, 9]\nclass = No", fillcolor="#e5813900"] ;
25 -> 26 ;
27 [label="gini = 0.331\nsamples = 105\nvalue = [22, 83]\nclass = Yes", fillcolor="#399de5bb"] ;
25 -> 27 ;
28 [label="Property_Area <= 2.5\ngini = 0.267\nsamples = 283\nvalue = [45, 238]\nclass = Yes", fillcolor="#399de5cf"] ;
24 -> 28 ;
29 [label="gini = 0.199\nsamples = 161\nvalue = [18, 143]\nclass = Yes", fillcolor="#399de5df"] ;
28 -> 29 ;
30 [label="gini = 0.345\nsamples = 122\nvalue = [27, 95]\nclass = Yes", fillcolor="#399de5b7"] ;
28 -> 30 ;
31 [label="Property_Area <= 2.5\ngini = 0.5\nsamples = 10\nvalue = [5, 5]\nclass = No", fillcolor="#e5813900"] ;
23 -> 31 ;
32 [label="Total_Income <= 2.0\ngini = 0.469\nsamples = 8\nvalue = [3, 5]\nclass = Yes", fillcolor="#399de566"] ;
31 -> 32 ;
33 [label="gini = 0.278\nsamples = 6\nvalue = [1, 5]\nclass = Yes", fillcolor="#399de5cc"] ;
32 -> 33 ;
34 [label="gini = 0.0\nsamples = 2\nvalue = [2, 0]\nclass = No", fillcolor="#e58139ff"] ;
32 -> 34 ;
35 [label="gini = 0.0\nsamples = 2\nvalue = [2, 0]\nclass = No", fillcolor="#e58139ff"] ;
31 -> 35 ;
36 [label="Loan_Amount_Term <= 2.5\ngini = 0.496\nsamples = 11\nvalue = [6, 5]\nclass = No", fillcolor="#e581392a"] ;
22 -> 36 ;
37 [label="gini = 0.0\nsamples = 2\nvalue = [0, 2]\nclass = Yes", fillcolor="#399de5ff"] ;
36 -> 37 ;
38 [label="LoanAmount <= 3.5\ngini = 0.444\nsamples = 9\nvalue = [6, 3]\nclass = No", fillcolor="#e581397f"] ;
36 -> 38 ;
39 [label="LoanAmount <= 1.5\ngini = 0.48\nsamples = 5\nvalue = [2, 3]\nclass = Yes", fillcolor="#399de555"] ;
38 -> 39 ;
40 [label="gini = 0.0\nsamples = 1\nvalue = [1, 0]\nclass = No", fillcolor="#e58139ff"] ;
39 -> 40 ;
41 [label="gini = 0.375\nsamples = 4\nvalue = [1, 3]\nclass = Yes", fillcolor="#399de5aa"] ;
39 -> 41 ;
42 [label="gini = 0.0\nsamples = 4\nvalue = [4, 0]\nclass = No", fillcolor="#e58139ff"] ;
38 -> 42 ;
}